encog,BasicNetwork,java,3.1.0,1,1339961157219
[BASIC]
[BASIC:PARAMS]
CONNECTION_LIMIT=0.0000000001
[BASIC:NETWORK]
beginTraining=0
connectionLimit=0.0000000001
contextTargetOffset=0,0,15,0,26,0,0
contextTargetSize=0,0,3,0,3,0,0
endTraining=6
hasContext=t
inputCount=3
layerCounts=1,6,4,7,4,7,4
layerFeedCounts=1,5,3,3,3,3,3
layerContextCount=0,0,0,3,0,3,0
layerIndex=0,1,7,11,18,22,29
output=0.0859185408,0.9256886774,0.0889677191,0.2236430165,0.3191822867,0.4324290139,1,0.5931843488,0.9475571162,0.5497032722,1,0.4678978223,0.4369442717,0.4759982164,1,0.9256886774,0.0889677191,0.2236430165,0.0617165626,0.3072035887,0.2987808579,1,0.3236041428,0.4627348729,0.6679861819,1,0.4678978223,0.4369442717,0.4759982164,0.0158197927,0.1186484455,0.9887370462,1
outputCount=1
weightIndex=0,6,26,47,59,80,92
weights=-0.302002574,0.908100443,1.5651638337,-8.4114510065,1.917098532,-0.660012128,-0.6386754389,1.1178013434,2.2869284589,0.5848142463,-1.0988850531,-2.0668146617,-0.3900173413,0.4983554294,0.2607668701,-0.5671084372,0.9182308672,-1.3666310438,-3.6752813638,0.2224791842,-4.7057564108,3.7985451217,-1.1885347053,-0.4034434893,0.7805298169,0.386298496,1.1970960907,-0.1024026924,3.3103337061,-2.0216455496,0.5717962262,-2.1637424316,-0.1323339933,-1.4690040295,-0.4610181525,1.7874955483,1.184689762,1.0597564695,2.2978082738,2.5100725758,2.7167573154,1.2036331153,2.4767044918,-1.8225605352,-0.9181944634,-1.3483047902,0.0709301315,-0.2774986032,-3.2650698926,-1.5509771653,1.3549841458,-1.4002567871,-1.7370104704,0.5548312464,0.2006889845,-0.6732167866,-2.2482397917,-4.0763743246,1.8540775949,-0.6933342051,1.3179594399,-1.8923896701,-2.008716723,0.4064600879,2.3145059193,-2.1729668659,-2.8784117981,2.6895277737,0.6722269421,0.3987196812,-1.1848863938,-2.3548872862,-0.8135942541,-4.0681770567,3.9657037308,-1.174016277,-0.3426216716,-1.779124519,-0.6332317628,1.8156232202,0.8433093854,0.0419483882,-4.1734535789,3.3708725685,-2.4541456205,0.4602847469,3.6766728219,-3.8003880508,0.744122917,2.523404765,0.8382591786,-0.4408969285
biasActivation=0,1,1,1,1,1,1
[BASIC:ACTIVATION]
"ActivationSigmoid"
"ActivationSigmoid"
"ActivationSigmoid"
"ActivationSigmoid"
"ActivationSigmoid"
"ActivationSigmoid"
"ActivationSigmoid"
