encog,BasicNetwork,java,3.1.0,1,1340036725511
[BASIC]
[BASIC:PARAMS]
CONNECTION_LIMIT=0.0000000001
[BASIC:NETWORK]
beginTraining=0
connectionLimit=0.0000000001
contextTargetOffset=0,0,15,0,26,0,0
contextTargetSize=0,0,3,0,3,0,0
endTraining=6
hasContext=t
inputCount=3
layerCounts=1,6,4,7,4,7,4
layerFeedCounts=1,5,3,3,3,3,3
layerContextCount=0,0,0,3,0,3,0
layerIndex=0,1,7,11,18,22,29
output=0.0793172984,0.9456282028,0.9827022082,0.0471126699,0.3015742673,0.628798807,1,0.4452215508,0.0469235234,0.6796246449,1,0.0890352243,0.1798554369,0.536197965,1,0.9456282028,0.9827022082,0.0471126699,0.9251579505,0.4224471196,0.9949753397,1,0.1112823496,0.298703601,0.6512351845,1,0.0890352243,0.1798554369,0.536197965,0.0158197927,0.1186484455,0.9887370462,1
outputCount=1
weightIndex=0,6,26,47,59,80,92
weights=0.3507109903,-2.1997959372,-2.2312596417,-0.765844389,7.955746668,-5.2880415506,1.4297014878,1.4613678472,0.9442535574,1.5091594562,0.7278540392,0.9707238859,3.2569543777,1.4566147266,-0.4619754887,2.152397179,-0.1905719352,-2.7727539366,0.0365145735,1.2406814579,-1.478668049,0.09065249,6.677506944,0.61097741,1.899671645,-3.7656357479,-2.6851511114,2.9721569219,4.690656908,-0.4175870374,-2.8367507362,0.1251089347,-1.128073735,-1.5147991629,3.5999253288,-2.0673628087,-0.9607323329,-0.7058366026,-0.9485848284,3.085900813,1.2279279283,1.6507406127,1.383338819,-0.6238606865,1.3578441139,-0.9955663291,-1.6541451429,-0.8706662198,-1.1259134317,0.2901215079,-1.332993245,-1.1473358728,-1.3274761018,0.9422264495,-0.8325639428,2.0811234177,-4.4835169502,0.4328349585,-0.3169335462,2.6178637183,1.6808541731,1.8584593237,0.0467458992,1.2053653588,0.4874730734,0.5003771778,-3.9260690382,-3.0215839723,4.1907315588,-0.6610319451,-0.7195393535,1.5331531514,-2.3318591152,1.8483695432,1.8119834309,3.2201381054,1.3950395759,3.4280874554,1.9039563808,0.7460009854,-2.6093850215,3.041375866,-3.9439273215,1.5022235419,-0.2045738872,-1.4721114793,-1.9550879927,1.2574891424,-2.1836615831,0.7169759894,2.7149209525,-2.110392907
biasActivation=0,1,1,1,1,1,1
[BASIC:ACTIVATION]
"ActivationSigmoid"
"ActivationSigmoid"
"ActivationSigmoid"
"ActivationSigmoid"
"ActivationSigmoid"
"ActivationSigmoid"
"ActivationSigmoid"
