encog,BasicNetwork,java,3.1.0,1,1340031399022
[BASIC]
[BASIC:PARAMS]
CONNECTION_LIMIT=0.0000000001
[BASIC:NETWORK]
beginTraining=0
connectionLimit=0.0000000001
contextTargetOffset=0,0,15,0,26,0,0
contextTargetSize=0,0,3,0,3,0,0
endTraining=6
hasContext=t
inputCount=3
layerCounts=1,6,4,7,4,7,4
layerFeedCounts=1,5,3,3,3,3,3
layerContextCount=0,0,0,3,0,3,0
layerIndex=0,1,7,11,18,22,29
output=0.0734495358,0.3388413808,0.7814644871,0.4996087038,0.7040477408,0.5073533949,1,0.5093979671,0.9902884564,0.5087566065,1,0.5611341732,0.5537518715,0.4762927757,1,0.3388413808,0.7814644871,0.4996087038,0.4276903585,0.8642955687,0.218272741,1,0.9512567207,0.07414654,0.6836845777,1,0.5611341732,0.5537518715,0.4762927757,0.0158197927,0.1186484455,0.9887370462,1
outputCount=1
weightIndex=0,6,26,47,59,80,92
weights=-4.9756775676,-0.7779789309,1.9329295329,1.1869987108,-2.782564618,-0.6306101396,-3.5938894082,3.3491796376,-4.1983928301,-0.018435571,0.4945886385,-1.7166029931,-2.2234642156,3.8534129655,1.4936271195,0.8463642371,1.976501085,-2.6061185218,0.3052505837,-0.1313936745,2.9018956978,-0.6350869827,-1.4972306029,0.474482322,-0.7257101847,0.6914374107,-0.6145999587,3.5416286806,0.6985450847,1.4503447755,-1.9784984982,-2.272469213,-1.8411739698,3.6692045042,-0.7731506297,-0.7798088207,2.3537016487,1.1622309713,1.0252023618,-0.3578864155,-2.1503594726,2.9039108697,-2.027742511,0.9110179724,-1.235164606,0.3950589177,-0.409897033,-1.1398143391,1.9077490914,-0.0062053136,-0.9142507196,3.3175585608,-2.0720835906,2.7856519227,-0.0201854638,-0.218314291,0.5033067037,-2.8667524689,0.1891990271,-1.5733769558,3.2152732722,-5.5948607752,1.3547683059,1.551492309,2.6969084309,2.2509286256,1.6511627238,1.2476579376,0.2031424426,1.2725656008,-2.739622558,0.2951870595,0.3149528445,-0.0024001424,4.0445844617,-3.4553492647,1.967500956,-1.2427999005,0.6743036189,-1.7969551258,-0.155166775,-3.2420268525,2.5724308561,0.8148751125,1.8834248649,1.4005813057,1.0628742695,-3.7715479182,0.8381583071,0.8263406253,4.7749744752,-4.0617409
biasActivation=0,1,1,1,1,1,1
[BASIC:ACTIVATION]
"ActivationSigmoid"
"ActivationSigmoid"
"ActivationSigmoid"
"ActivationSigmoid"
"ActivationSigmoid"
"ActivationSigmoid"
"ActivationSigmoid"
