encog,BasicNetwork,java,3.1.0,1,1339961911883
[BASIC]
[BASIC:PARAMS]
CONNECTION_LIMIT=0.0000000001
[BASIC:NETWORK]
beginTraining=0
connectionLimit=0.0000000001
contextTargetOffset=0,0,15,0,26,0,0
contextTargetSize=0,0,3,0,3,0,0
endTraining=6
hasContext=t
inputCount=3
layerCounts=1,6,4,7,4,7,4
layerFeedCounts=1,5,3,3,3,3,3
layerContextCount=0,0,0,3,0,3,0
layerIndex=0,1,7,11,18,22,29
output=0.0850158594,0.9970362106,0.5804629098,0.710182261,0.9915709896,0.6189661376,1,0.4080989596,0.8015291247,0.5555879473,1,0.4776382361,0.4287123811,0.3258367195,1,0.9970362106,0.5804629098,0.710182261,0.4484616252,0.3831324022,0.9886447022,1,0.2832771448,0.9045844308,0.6293658722,1,0.4776382361,0.4287123811,0.3258367195,0.0158197927,0.1186484455,0.9887370462,1
outputCount=1
weightIndex=0,6,26,47,59,80,92
weights=-1.66940141,4.3626861257,-0.7111571164,0.7408350693,-3.2069008226,-1.4885691172,4.6325603701,0.282879746,1.9631280429,2.6103487427,2.7480779115,1.8291576654,3.7542502147,-4.3487530813,-0.0067960975,-0.7220233037,-0.7768852496,1.9093936717,2.4512058734,0.3432111656,3.5792015626,1.5036216077,-1.3360546167,2.4035563727,-1.3925476278,-0.1224329414,-0.7004010327,5.1365147859,1.6367254938,0.4002171085,-2.8193912243,0.8728368109,-1.2299787657,0.0626707073,-0.3482730134,1.1870079087,1.5197455909,-0.965301058,1.5812472366,-0.4995293256,-0.6225273682,3.6914391283,0.293259957,-1.2254810959,-0.2381179398,1.6344393556,-0.9180801814,-1.8656275367,0.4584123473,0.4885563643,0.0885143077,4.1824988136,-4.7507813347,-1.5942421946,1.2335206098,0.9360134216,-2.1013801194,-0.1125380195,-0.2304751122,4.8085948565,0.2981025591,-2.4521754857,-0.3029219882,1.1203138562,-0.5663751118,-0.8712587877,-2.018355832,-1.2013837621,1.1049408575,0.2688151684,1.8623975215,-1.1036107101,-0.6047622021,-0.7003485028,0.5796771241,1.3876892325,0.9843063409,2.9321870724,0.8216348382,1.6253676726,-0.5246444376,0.9918798834,-4.6979973411,3.6074352711,1.7527320194,-1.4782715148,0.1966737163,2.2024420522,-1.3368581257,1.7363111423,1.2397901307,-0.8811908684
biasActivation=0,1,1,1,1,1,1
[BASIC:ACTIVATION]
"ActivationSigmoid"
"ActivationSigmoid"
"ActivationSigmoid"
"ActivationSigmoid"
"ActivationSigmoid"
"ActivationSigmoid"
"ActivationSigmoid"
